          0          0          0  -0.014044  -0.005906 -0.0035546 
          0          0          0   0.015529  -0.011949  0.0052935 
          0          0          0   0.046589   0.012807   0.017611 
          0          0          0 -0.0010805 -0.0053645  0.0051935 
          0          0          0  0.0040271  0.0076004 -0.00092152 
          0          0          0  -0.001963   0.032957    0.01369 
          0          0          0   0.013219   0.021805   0.010807 
          0          0          0   0.027477    -0.0179 -0.0040719 
          0          0          0    0.03744 -0.00018661 -0.0067745 
          0          0          0  0.0056945   0.025755  0.0024759 
          0          0          0  -0.016345   0.020993   0.011926 
          0          0          0  -0.014638   0.020996  0.0079109 
          0          0          0  -0.036029   0.015756   0.010751 
          0          0          0  0.0089965  0.0094026 -0.0025502 
          0          0          0   0.011502  -0.038886   0.010693 
          0          0          0   0.002379  -0.029408  0.0040434 
          0          0          0  0.0067776  -0.036255   0.012572 
          0          0          0  -0.074763  -0.012978  -0.029438 
          0          0          0  0.0057241  -0.032702  -0.015967 
          0          0          0   0.026562  -0.010437  -0.027334 
          0          0          0   -0.00661   -0.03654  0.0011516 
          0          0          0   0.010302     0.0228  -0.032526 
          0          0          0   0.010204  0.0090278  -0.014901 
          0          0          0 -0.0062432   0.027049  -0.010985 
          0          0          0   0.036962  -0.012799   0.020051 
          0          0          0   0.038969  0.0016628  0.0052971 
          0          0          0   0.024422   0.011891 -0.00045754 
          0          0          0   0.012055   0.027218   -0.00769 
          0          0          0  0.0074381   0.024869  -0.001464 
          0          0          0  -0.031375 9.9909e-05   -0.02011 
          0          0          0 -0.0069401   0.034829 -0.0054807 
          0          0          0  -0.011207   0.025163  0.0033757 
          0          0          0 -0.0070406  -0.026591  -0.024828 
          0          0          0  -0.040477  -0.021599 -0.0030898 
          0          0          0  0.0073582  -0.040084  -0.020437 
          0          0          0  0.0018802  -0.028911  -0.015712 
