          0          0          0    0.13806 -0.0081249   -0.26358 
          0          0          0    0.12325   0.050595   -0.26085 
          0          0          0    0.12887    0.10998   -0.24873 
          0          0          0   0.059272    0.14025   -0.25704 
          0          0          0   0.023062    0.13732   -0.26284 
          0          0          0  -0.025993    0.13439   -0.26221 
          0          0          0  -0.070411    0.12444    -0.2578 
          0          0          0    -0.0971   0.078433   -0.26424 
          0          0          0   -0.11863   0.041234   -0.26627 
          0          0          0   -0.15272  0.0026227   -0.25505 
          0          0          0    -0.1381  -0.045415   -0.25867 
          0          0          0   -0.10137  -0.090622   -0.25648 
          0          0          0  -0.067751   -0.11428   -0.25426 
          0          0          0  -0.023363   -0.12854   -0.25953 
          0          0          0   0.028387   -0.15887   -0.24768 
          0          0          0   0.084617   -0.12721   -0.25307 
          0          0          0     0.1318   -0.10404   -0.24488 
          0          0          0    0.12059  -0.046415   -0.26172 
          0          0          0  -0.011655  -0.016332 -0.0064781 
          0          0          0   0.011068   0.015592  -0.016648 
          0          0          0 -0.0084643  0.0011401 -0.0070346 
          0          0          0 -0.0053235  0.0068339   -0.01694 
          0          0          0 -0.0036865  -0.023506 -0.0025161 
          0          0          0 -9.2922e-05  -0.011639 -0.0025453 
          0          0          0    0.01478  -0.022131  0.0053762 
          0          0          0  0.0070304  -0.020981 -0.0018186 
          0          0          0   0.014731 -0.00017339 -0.0033311 
          0          0          0 -0.0052359  0.0034923  -0.015017 
          0          0          0  0.0085888  0.0050666  -0.010147 
          0          0          0 -0.0018733   -0.01457  -0.016201 
          0          0          0   0.010951   0.016601 -0.0051632 
          0          0          0 -0.0075561   0.011045 -0.0060688 
          0          0          0 -0.0085394  0.0077837 -0.0064332 
          0          0          0 -0.0021254  -0.012006  -0.013995 
          0          0          0 -0.0030134 -0.0052727 -0.0095934 
          0          0          0  0.0038568 -0.0019923  -0.011572 
