          0          0          0  -0.011052 -0.0088737  -0.018452 
          0          0          0  -0.007108  0.0023658  -0.011393 
          0          0          0   0.019511   0.017987 -0.00045237 
          0          0          0  -0.011209    0.01657 -0.0083618 
          0          0          0 9.3172e-07 0.00010703  -0.013581 
          0          0          0 -0.00098841  -0.006004  -0.014413 
          0          0          0  0.0022093 -0.00070805  -0.010947 
          0          0          0   0.016382  -0.016398  -0.019362 
          0          0          0    0.01696 -0.0073624  -0.019023 
          0          0          0  -0.010319  0.0031681 -0.0074754 
          0          0          0 -0.0044174  0.0038699  -0.010603 
          0          0          0  0.0068895  0.0022227 -0.0086251 
          0          0          0  0.0042536   0.011289 -0.0067847 
          0          0          0  0.0007911    0.01054   -0.01113 
          0          0          0  0.0033754  -0.019132 -4.5084e-05 
          0          0          0    0.01166 -0.0012461 -0.0061107 
          0          0          0    0.02058  -0.011963  0.0028595 
          0          0          0  -0.015959  0.0030423  -0.015141 
          0          0          0  -0.011655  -0.016332 -0.0064781 
          0          0          0   0.011068   0.015592  -0.016648 
          0          0          0 -0.0084643  0.0011401 -0.0070346 
          0          0          0 -0.0053235  0.0068339   -0.01694 
          0          0          0 -0.0036865  -0.023506 -0.0025161 
          0          0          0 -9.2935e-05  -0.011639 -0.0025453 
          0          0          0    0.01478  -0.022131  0.0053762 
          0          0          0  0.0070304  -0.020981 -0.0018186 
          0          0          0   0.014731 -0.00017339 -0.0033311 
          0          0          0 -0.0052359  0.0034923  -0.015017 
          0          0          0  0.0085888  0.0050666  -0.010147 
          0          0          0 -0.0018733   -0.01457  -0.016201 
          0          0          0   0.010951   0.016601 -0.0051632 
          0          0          0 -0.0075561   0.011045 -0.0060688 
          0          0          0 -0.0085394  0.0077837 -0.0064332 
          0          0          0 -0.0021254  -0.012006  -0.013995 
          0          0          0 -0.0030134 -0.0052727 -0.0095934 
          0          0          0  0.0038568 -0.0019923  -0.011572 
