          0          0          0   0.010337  0.0062851   0.031173 
          0          0          0  0.0028441  -0.004838    0.02197 
          0          0          0  -0.012903  -0.015463   0.010498 
          0          0          0 0.00024817  0.0008188  0.0074919 
          0          0          0 -0.0027231   0.014884  0.0062485 
          0          0          0  -0.012269   0.006003 0.00012409 
          0          0          0 -0.0087286 -0.00051652 -0.0088084 
          0          0          0  -0.025705  0.0084636  0.0034235 
          0          0          0  0.0029327  -0.014954 -0.0092206 
          0          0          0   0.022955 -0.0018137  -0.011173 
          0          0          0 -0.0055121 -0.0095506  0.0053156 
          0          0          0 0.00092886  0.0093933  0.0095159 
          0          0          0  -0.011561 0.00013328   0.017465 
          0          0          0 -0.0066632 -0.0068925    0.02521 
          0          0          0  0.0070931 -0.0076956    0.02682 
          0          0          0 -0.0031092   0.014081   0.020395 
          0          0          0  -0.015303  0.0066347   0.026684 
          0          0          0  -0.020365 -0.0053716   0.023074 
          0          0          0 -0.0046908 -0.0084177   0.022928 
          0          0          0  0.0025461 -0.0076305   0.010908 
          0          0          0  -0.018791  -0.012837   0.011476 
          0          0          0  0.0057007   0.015858  -0.011778 
          0          0          0 0.00089172    0.02415  -0.025819 
          0          0          0 -0.00019816 -0.0057125  -0.010225 
          0          0          0  -0.017083  0.0098422  -0.027592 
          0          0          0  -0.013923 -0.0020031  -0.030531 
          0          0          0  0.0014392 -0.0025319  -0.022625 
          0          0          0   0.011058 -0.0056288  -0.016645 
          0          0          0    0.01852 -0.0059515 -0.0056939 
          0          0          0  0.0040481 -0.0032761 -0.0063664 
          0          0          0 0.00014522 -0.0024368 -0.0033545 
          0          0          0 0.00062884 -0.0037975  0.0073647 
          0          0          0  0.0026636  -0.016991  0.0076452 
          0          0          0   0.013692  -0.023265   0.015017 
          0          0          0   0.011851  0.0040242   0.020812 
          0          0          0  0.0028459  -0.014216   0.019821 
