          0          0          0  0.0070021  0.0036953  -0.005152 
          0          0          0   0.013588   0.028522  0.0061794 
          0          0          0 -0.0017645   0.035242  0.0062883 
          0          0          0  -0.025787   0.042708  0.0089746 
          0          0          0 -0.0089487   0.031837  0.0097271 
          0          0          0  -0.033711 -0.0089337  0.0070309 
          0          0          0  -0.018675 0.00022459   0.012885 
          0          0          0   -0.04279    0.02392   0.032012 
          0          0          0 -0.0036778  -0.031668  0.0056842 
          0          0          0  -0.010953  -0.020833  0.0091853 
          0          0          0  -0.018893  -0.022404  0.0077166 
          0          0          0  0.0083477  -0.021872   0.010027 
          0          0          0   0.014114   -0.03009   0.012014 
          0          0          0  -0.013841 -0.0028983 -0.0018124 
          0          0          0   0.010026 -0.0011813 -0.0022678 
          0          0          0   0.028643   0.015332 -0.0079451 
          0          0          0   0.012995 -0.00025814  0.0091749 
          0          0          0   0.015696   0.013061  0.0069696 
          0          0          0 -0.0048785  -0.017923 -0.0032561 
          0          0          0   0.013491   0.013904  -0.013033 
          0          0          0  -0.014818  0.0062033  -0.010198 
          0          0          0  0.0019129   0.019509  -0.016343 
          0          0          0  0.0037795    0.02047  -0.018298 
          0          0          0 -0.0026975   0.012644 -0.0060293 
          0          0          0  -0.020157  -0.015047 -0.0048094 
          0          0          0  -0.020659 -0.0090494  -0.013311 
          0          0          0  0.0082679 -0.0089252 -0.00022238 
          0          0          0 -0.0072085  -0.024256  -0.023146 
          0          0          0   0.011585  -0.012622   -0.01176 
          0          0          0   0.025146  -0.018815  -0.011856 
          0          0          0   0.012974 8.5963e-06 -0.0072092 
          0          0          0  0.0044931  -0.017899  -0.023174 
          0          0          0  0.0017872 -3.625e-05 -0.0091641 
          0          0          0   0.030373  -0.012081    -0.0285 
          0          0          0   0.036134  -0.013205  -0.024692 
          0          0          0   0.019241 -0.0066672  -0.021913 
